net 
{
    node_size = (76 36);
}

node H
{
    label = "H";
    position = (263 219);
    states = ("Hp"  "Hd");
}

node M
{
    label = "M";
    position = (263 111);
    states = ("Hp"  "Hd");
}

node X
{
    label = "X";
    position = (432 53);
    states = ("Xa"  "Xb"  "Xc");
}

node E
{
    label = "E";
    position = (263 -16);
    states = ("Ea"  "Eb"  "Ec"  "Ed");
}

potential (H |)
{
    data = (0.01000000 0.99000000);
}

potential (M | H)
{
    data = ((0.51000000 0.49000000)
        (0.87000000 0.13000000));
}

potential (X |)
{
    data = (0.50000000 0.10000000 0.40000000);
}

potential (E | M X)
{
    data = (((0.11000000 0.15000000 0.60000000 0.14000000)
        (0.30000000 0.40000000 0.08000000 0.22000000)
        (0.80000000 0.12000000 0.01100000 0.06900000))
        ((0.00000000 0.73000000 0.24000000 0.03000000)
        (0.02000000 0.01000000 0.02000000 0.95000000)
        (0.05000000 0.25000000 0.20000000 0.50000000)));
}
